<?xml version="1.0"?>
<opencv_storage>
<cascade>
  <stageType>BOOST</stageType>
  <featureType>HAAR</featureType>
  <height>20</height>
  <width>20</width>
  <stageParams>
    <boostType>GAB</boostType>
    <minHitRate>9.9500000476837158e-001</minHitRate>
    <maxFalseAlarm>5.0000000000000000e-001</maxFalseAlarm>
    <weightTrimRate>9.4999999999999996e-001</weightTrimRate>
    <maxDepth>1</maxDepth>
    <maxWeakCount>100</maxWeakCount></stageParams>
  <featureParams>
    <maxCatCount>0</maxCatCount>
    <featSize>1</featSize>
    <mode>ALL</mode></featureParams>
  <stageNum>15</stageNum>
  <stages>
    <!-- stage 0 -->
    <_>
      <maxWeakCount>4</maxWeakCount>
      <stageThreshold>-2.2519214153289795e+000</stageThreshold>
      <weakClassifiers>
        <_>
          <internalNodes>
            0 -1 24 3.8850676268339157e-002</internalNodes>
          <leafValues>
            -9.1266375780105591e-001 1.2676055729389191e-001</leafValues></_>
        <_>
          <internalNodes>
            0 -1 58 -3.2426722347736359e-002</internalNodes>
          <leafValues>
            3.2710939645767212e-001 -9.3882966041564941e-001</leafValues></_>
        <_>
          <internalNodes>
            0 -1 8 -3.6205776035785675e-002</internalNodes>
          <leafValues>
            4.0292015671730042e-001 -8.5104930400848389e-001</leafValues></_>
        <_>
          <internalNodes>
            0 -1 56 5.0681792199611664e-002</internalNodes>
          <leafValues>
            -8.1136077642440796e-001 4.5062121748924255e-001</leafValues></_></weakClassifiers></_>
    <!-- stage 1 -->
    <_>
      <maxWeakCount>7</maxWeakCount>
      <stageThreshold>-1.8442485332489014e+000</stageThreshold>
      <weakClassifiers>
        <_>
          <internalNodes>
            0 -1 98 -2.9675334692001343e-001</internalNodes>
          <leafValues>
            7.0786517858505249e-001 -7.7677768468856812e-001</leafValues></_>
        <_>
          <internalNodes>
            0 -1 109 2.3425605148077011e-002</internalNodes>
          <leafValues>
            -8.2833534479141235e-001 4.1008484363555908e-001</leafValues></_>
        <_>
          <internalNodes>
            0 -1 16 -4.4238604605197906e-002</internalNodes>
          <leafValues>
            3.7552419304847717e-001 -7.1966600418090820e-001</leafValues></_>
        <_>
          <internalNodes>
            0 -1 89 -7.4617967009544373e-002</internalNodes>
          <leafValues>
            2.9003733396530151e-001 -7.7751934528350830e-001</leafValues></_>
        <_>
          <internalNodes>
            0 -1 47 -1.1775393504649401e-003</internalNodes>
          <leafValues>
            2.1467849612236023e-001 -8.4225863218307495e-001</leafValues></_>
        <_>
          <internalNodes>
            0 -1 36 1.4131689444184303e-002</internalNodes>
          <leafValues>
            -5.7193571329116821e-001 3.6915525794029236e-001</leafValues></_>
        <_>
          <internalNodes>
            0 -1 46 1.3811191916465759e-001</internalNodes>
          <leafValues>
            -3.4818115830421448e-001 6.7421609163284302e-001</leafValues></_></weakClassifiers></_>
    <!-- stage 2 -->
    <_>
      <maxWeakCount>8</maxWeakCount>
      <stageThreshold>-2.3076450824737549e+000</stageThreshold>
      <weakClassifiers>
        <_>
          <internalNodes>
            0 -1 96 -3.7902706861495972e-001</internalNodes>
          <leafValues>
            7.1428573131561279e-001 -7.6135349273681641e-001</leafValues></_>
        <_>
          <internalNodes>
            0 -1 123 1.1555533856153488e-002</internalNodes>
          <leafValues>
            -6.5695703029632568e-001 3.8520696759223938e-001</leafValues></_>
        <_>
          <internalNodes>
            0 -1 14 -2.0791888236999512e-001</internalNodes>
          <leafValues>
            3.9617666602134705e-001 -6.4633214473724365e-001</leafValues></_>
        <_>
          <internalNodes>
            0 -1 43 -3.0104126781225204e-002</internalNodes>
          <leafValues>
            3.3283108472824097e-001 -6.3488447666168213e-001</leafValues></_>
        <_>
          <internalNodes>
            0 -1 25 4.1079841554164886e-002</internalNodes>
          <leafValues>
            -4.8258471488952637e-001 4.6249988675117493e-001</leafValues></_>
        <_>
          <internalNodes>
            0 -1 38 -2.3111945483833551e-004</internalNodes>
          <leafValues>
            -8.6026513576507568e-001 2.3382247984409332e-001</leafValues></_>
        <_>
          <internalNodes>
            0 -1 38 3.7706654984503984e-004</internalNodes>
          <leafValues>
            2.2749206423759460e-001 -8.2399892807006836e-001</leafValues></_>
        <_>
          <internalNodes>
            0 -1 0 -2.3829696699976921e-002</internalNodes>
          <leafValues>
            4.1315236687660217e-001 -4.5073404908180237e-001</leafValues></_></weakClassifiers></_>
    <!-- stage 3 -->
    <_>
      <maxWeakCount>7</maxWeakCount>
      <stageThreshold>-1.9280034303665161e+000</stageThreshold>
      <weakClassifiers>
        <_>
          <internalNodes>
            0 -1 45 -3.7130725383758545e-001</internalNodes>
          <leafValues>
            6.3157892227172852e-001 -7.5444841384887695e-001</leafValues></_>
        <_>
          <internalNodes>
            0 -1 4 -2.4830028414726257e-002</internalNodes>
          <leafValues>
            1.3118393719196320e-001 -7.4259608983993530e-001</leafValues></_>
        <_>
          <internalNodes>
            0 -1 41 -4.5236587524414063e-002</internalNodes>
          <leafValues>
            1.7238791286945343e-001 -8.4880900382995605e-001</leafValues></_>
        <_>
          <internalNodes>
            0 -1 67 2.7935579419136047e-002</internalNodes>
          <leafValues>
            -5.0917619466781616e-001 4.0446087718009949e-001</leafValues></_>
        <_>
          <internalNodes>
            0 -1 64 -4.0900504589080811e-001</internalNodes>
          <leafValues>
            3.9209660887718201e-001 -5.5320864915847778e-001</leafValues></_>
        <_>
          <internalNodes>
            0 -1 125 9.8316911607980728e-003</internalNodes>
          <leafValues>
            -5.0548177957534790e-001 3.9539337158203125e-001</leafValues></_>
        <_>
          <internalNodes>
            0 -1 39 5.4637249559164047e-004</internalNodes>
          <leafValues>
            1.6663135588169098e-001 -9.5609009265899658e-001</leafValues></_></weakClassifiers></_>
    <!-- stage 4 -->
    <_>
      <maxWeakCount>6</maxWeakCount>
      <stageThreshold>-1.3488742113113403e+000</stageThreshold>
      <weakClassifiers>
        <_>
          <internalNodes>
            0 -1 96 -4.3280661106109619e-001</internalNodes>
          <leafValues>
            7.7777779102325439e-001 -7.3472946882247925e-001</leafValues></_>
        <_>
          <internalNodes>
            0 -1 66 2.9932189732789993e-002</internalNodes>
          <leafValues>
            -5.1337677240371704e-001 4.8690608143806458e-001</leafValues></_>
        <_>
          <internalNodes>
            0 -1 40 -6.7027145996689796e-004</internalNodes>
          <leafValues>
            -7.6268589496612549e-001 2.9436567425727844e-001</leafValues></_>
        <_>
          <internalNodes>
            0 -1 13 -5.5608190596103668e-002</internalNodes>
          <leafValues>
            2.5491574406623840e-001 -7.0927381515502930e-001</leafValues></_>
        <_>
          <internalNodes>
            0 -1 108 -5.5989698739722371e-004</internalNodes>
          <leafValues>
            -8.6956107616424561e-001 1.5357157588005066e-001</leafValues></_>
        <_>
          <internalNodes>
            0 -1 3 -4.9415947869420052e-003</internalNodes>
          <leafValues>
            2.5343069434165955e-001 -5.7620626688003540e-001</leafValues></_></weakClassifiers></_>
    <!-- stage 5 -->
    <_>
      <maxWeakCount>8</maxWeakCount>
      <stageThreshold>-1.7857083082199097e+000</stageThreshold>
      <weakClassifiers>
        <_>
          <internalNodes>
            0 -1 98 -3.8178563117980957e-001</internalNodes>
          <leafValues>
            6.2711864709854126e-001 -7.3356705904006958e-001</leafValues></_>
        <_>
          <internalNodes>
            0 -1 62 8.4682509303092957e-002</internalNodes>
          <leafValues>
            -5.7218152284622192e-001 3.3486580848693848e-001</leafValues></_>
        <_>
          <internalNodes>
            0 -1 122 3.3932453952729702e-003</internalNodes>
          <leafValues>
            -7.2518807649612427e-001 2.1585485339164734e-001</leafValues></_>
        <_>
          <internalNodes>
            0 -1 57 9.7049977630376816e-003</internalNodes>
          <leafValues>
            -4.5347490906715393e-001 3.6470893025398254e-001</leafValues></_>
        <_>
          <internalNodes>
            0 -1 118 3.2101146643981338e-004</internalNodes>
          <leafValues>
            2.2298677265644073e-001 -8.8952571153640747e-001</leafValues></_>
        <_>
          <internalNodes>
            0 -1 15 -1.5413708053529263e-002</internalNodes>
          <leafValues>
            1.3183593750000000e-001 -7.6608890295028687e-001</leafValues></_>
        <_>
          <internalNodes>
            0 -1 106 4.3105846270918846e-003</internalNodes>
          <leafValues>
            -6.9865638017654419e-001 1.8864470720291138e-001</leafValues></_>
        <_>
          <internalNodes>
            0 -1 79 1.6795014380477369e-004</internalNodes>
          <leafValues>
            1.5523584187030792e-001 -7.6765191555023193e-001</leafValues></_></weakClassifiers></_>
    <!-- stage 6 -->
    <_>
      <maxWeakCount>11</maxWeakCount>
      <stageThreshold>-1.1034456491470337e+000</stageThreshold>
      <weakClassifiers>
        <_>
          <internalNodes>
            0 -1 48 -3.1436079740524292e-001</internalNodes>
          <leafValues>
            3.1914892792701721e-001 -7.5045210123062134e-001</leafValues></_>
        <_>
          <internalNodes>
            0 -1 37 3.8292635232210159e-002</internalNodes>
          <leafValues>
            -6.6958266496658325e-001 1.4927962422370911e-001</leafValues></_>
        <_>
          <internalNodes>
            0 -1 127 2.6032404275611043e-004</internalNodes>
          <leafValues>
            9.6119880676269531e-002 -9.2197060585021973e-001</leafValues></_>
        <_>
          <internalNodes>
            0 -1 119 2.5118509074673057e-004</internalNodes>
          <leafValues>
            1.5890623629093170e-001 -6.6437041759490967e-001</leafValues></_>
        <_>
          <internalNodes>
            0 -1 86 -2.1526526659727097e-002</internalNodes>
          <leafValues>
            2.9905161261558533e-001 -3.9039480686187744e-001</leafValues></_>
        <_>
          <internalNodes>
            0 -1 10 -2.3460040392819792e-004</internalNodes>
          <leafValues>
            -6.3915073871612549e-001 1.8716697394847870e-001</leafValues></_>
        <_>
          <internalNodes>
            0 -1 5 -2.2654291242361069e-002</internalNodes>
          <leafValues>
            4.0084472298622131e-001 -3.0970746278762817e-001</leafValues></_>
        <_>
          <internalNodes>
            0 -1 33 -4.0865534543991089e-001</internalNodes>
          <leafValues>
            2.9831647872924805e-001 -4.2492347955703735e-001</leafValues></_>
        <_>
          <internalNodes>
            0 -1 92 4.3748831376433372e-003</internalNodes>
          <leafValues>
            -2.4901790916919708e-001 5.3936749696731567e-001</leafValues></_>
        <_>
          <internalNodes>
            0 -1 38 -1.3518950436264277e-004</internalNodes>
          <leafValues>
            -6.7050135135650635e-001 1.8929363787174225e-001</leafValues></_>
        <_>
          <internalNodes>
            0 -1 68 -1.4130529016256332e-002</internalNodes>
          <leafValues>
            6.4344441890716553e-001 -2.1275752782821655e-001</leafValues></_></weakClassifiers></_>
    <!-- stage 7 -->
    <_>
      <maxWeakCount>12</maxWeakCount>
      <stageThreshold>-1.5232796669006348e+000</stageThreshold>
      <weakClassifiers>
        <_>
          <internalNodes>
            0 -1 98 -3.9893081784248352e-001</internalNodes>
          <leafValues>
            3.6507937312126160e-001 -7.2383463382720947e-001</leafValues></_>
        <_>
          <internalNodes>
            0 -1 124 1.1040987446904182e-002</internalNodes>
          <leafValues>
            -5.7047528028488159e-001 1.9236515462398529e-001</leafValues></_>
        <_>
          <internalNodes>
            0 -1 83 1.4519045362249017e-003</internalNodes>
          <leafValues>
            -2.7171447873115540e-001 4.1759711503982544e-001</leafValues></_>
        <_>
          <internalNodes>
            0 -1 26 -1.6813952242955565e-004</internalNodes>
          <leafValues>
            -8.6595708131790161e-001 1.4223778247833252e-001</leafValues></_>
        <_>
          <internalNodes>
            0 -1 54 -2.1798973903059959e-003</internalNodes>
          <leafValues>
            2.1014215052127838e-001 -5.4269671440124512e-001</leafValues></_>
        <_>
          <internalNodes>
            0 -1 50 4.2300234781578183e-004</internalNodes>
          <leafValues>
            1.3873727619647980e-001 -7.2994524240493774e-001</leafValues></_>
        <_>
          <internalNodes>
            0 -1 21 4.3027824722230434e-003</internalNodes>
          <leafValues>
            1.3816979527473450e-001 -7.8135699033737183e-001</leafValues></_>
        <_>
          <internalNodes>
            0 -1 1 -1.3817916624248028e-002</internalNodes>
          <leafValues>
            2.8550955653190613e-001 -3.9345926046371460e-001</leafValues></_>
        <_>
          <internalNodes>
            0 -1 32 2.2008579969406128e-001</internalNodes>
          <leafValues>
            -1.6146352887153625e-001 7.7185750007629395e-001</leafValues></_>
        <_>
          <internalNodes>
            0 -1 70 -7.4713423848152161e-002</internalNodes>
          <leafValues>
            5.4059123992919922e-001 -2.4764087796211243e-001</leafValues></_>
        <_>
          <internalNodes>
            0 -1 71 6.0357954353094101e-003</internalNodes>
          <leafValues>
            -5.6100714206695557e-001 2.0884601771831512e-001</leafValues></_>
        <_>
          <internalNodes>
            0 -1 2 -5.7877908693626523e-004</internalNodes>
          <leafValues>
            -5.4836541414260864e-001 1.8688751757144928e-001</leafValues></_></weakClassifiers></_>
    <!-- stage 8 -->
    <_>
      <maxWeakCount>10</maxWeakCount>
      <stageThreshold>-1.4576036930084229e+000</stageThreshold>
      <weakClassifiers>
        <_>
          <internalNodes>
            0 -1 117 -6.1273393221199512e-003</internalNodes>
          <leafValues>
            6.5420560538768768e-002 -7.3833483457565308e-001</leafValues></_>
        <_>
          <internalNodes>
            0 -1 81 5.0061906222254038e-004</internalNodes>
          <leafValues>
            -4.3621832132339478e-001 1.8079267442226410e-001</leafValues></_>
        <_>
          <internalNodes>
            0 -1 100 3.2514405902475119e-003</internalNodes>
          <leafValues>
            8.9453637599945068e-002 -9.3909758329391479e-001</leafValues></_>
        <_>
          <internalNodes>
            0 -1 115 -4.3052691034972668e-004</internalNodes>
          <leafValues>
            3.9905312657356262e-001 -2.5045129656791687e-001</leafValues></_>
        <_>
          <internalNodes>
            0 -1 121 8.9248083531856537e-003</internalNodes>
          <leafValues>
            -4.6060591936111450e-001 2.3298141360282898e-001</leafValues></_>
        <_>
          <internalNodes>
            0 -1 77 3.0257932841777802e-002</internalNodes>
          <leafValues>
            -6.2743973731994629e-001 1.7714361846446991e-001</leafValues></_>
        <_>
          <internalNodes>
            0 -1 27 1.2859670678153634e-003</internalNodes>
          <leafValues>
            1.4960479736328125e-001 -7.8235089778900146e-001</leafValues></_>
        <_>
          <internalNodes>
            0 -1 29 2.3124786093831062e-004</internalNodes>
          <leafValues>
            1.2328848242759705e-001 -7.1192890405654907e-001</leafValues></_>
        <_>
          <internalNodes>
            0 -1 95 -9.8700181115418673e-004</internalNodes>
          <leafValues>
            -7.4292659759521484e-001 1.4548374712467194e-001</leafValues></_>
        <_>
          <internalNodes>
            0 -1 20 3.4418341238051653e-004</internalNodes>
          <leafValues>
            1.2542770802974701e-001 -6.6086035966873169e-001</leafValues></_></weakClassifiers></_>
    <!-- stage 9 -->
    <_>
      <maxWeakCount>13</maxWeakCount>
      <stageThreshold>-1.6776716709136963e+000</stageThreshold>
      <weakClassifiers>
        <_>
          <internalNodes>
            0 -1 55 -3.9565420150756836e-001</internalNodes>
          <leafValues>
            9.3333333730697632e-001 -7.0769232511520386e-001</leafValues></_>
        <_>
          <internalNodes>
            0 -1 44 -6.5672397613525391e-003</internalNodes>
          <leafValues>
            3.5961799323558807e-002 -6.4373582601547241e-001</leafValues></_>
        <_>
          <internalNodes>
            0 -1 128 -1.3261398999020457e-004</internalNodes>
          <leafValues>
            -6.0400336980819702e-001 1.6125334799289703e-001</leafValues></_>
        <_>
          <internalNodes>
            0 -1 103 -1.0620187968015671e-002</internalNodes>
          <leafValues>
            4.9425548315048218e-001 -1.8325830996036530e-001</leafValues></_>
        <_>
          <internalNodes>
            0 -1 9 2.6283961534500122e-001</internalNodes>
          <leafValues>
            -1.9539099931716919e-001 6.7486137151718140e-001</leafValues></_>
        <_>
          <internalNodes>
            0 -1 28 8.3269923925399780e-004</internalNodes>
          <leafValues>
            1.1971086263656616e-001 -8.9010512828826904e-001</leafValues></_>
        <_>
          <internalNodes>
            0 -1 104 1.9735824316740036e-003</internalNodes>
          <leafValues>
            1.1697200685739517e-001 -7.4386817216873169e-001</leafValues></_>
        <_>
          <internalNodes>
            0 -1 111 -1.4948367606848478e-003</internalNodes>
          <leafValues>
            4.8110139369964600e-001 -2.0868626236915588e-001</leafValues></_>
        <_>
          <internalNodes>
            0 -1 6 -8.3792237564921379e-003</internalNodes>
          <leafValues>
            5.8235782384872437e-001 -1.6478203237056732e-001</leafValues></_>
        <_>
          <internalNodes>
            0 -1 101 2.5041652843356133e-002</internalNodes>
          <leafValues>
            -2.2223767638206482e-001 4.7699743509292603e-001</leafValues></_>
        <_>
          <internalNodes>
            0 -1 97 -2.1960616577416658e-003</internalNodes>
          <leafValues>
            2.8932827711105347e-001 -3.3412000536918640e-001</leafValues></_>
        <_>
          <internalNodes>
            0 -1 112 -4.5312112197279930e-003</internalNodes>
          <leafValues>
            3.9817780256271362e-001 -2.2676374018192291e-001</leafValues></_>
        <_>
          <internalNodes>
            0 -1 82 -8.5704476805403829e-004</internalNodes>
          <leafValues>
            4.3070229887962341e-001 -2.2941045463085175e-001</leafValues></_></weakClassifiers></_>
    <!-- stage 10 -->
    <_>
      <maxWeakCount>11</maxWeakCount>
      <stageThreshold>-1.5701401233673096e+000</stageThreshold>
      <weakClassifiers>
        <_>
          <internalNodes>
            0 -1 61 -3.4233832359313965e-001</internalNodes>
          <leafValues>
            1. -7.0648461580276489e-001</leafValues></_>
        <_>
          <internalNodes>
            0 -1 18 -4.1707359254360199e-002</internalNodes>
          <leafValues>
            5.3031539916992188e-001 -2.9074242711067200e-001</leafValues></_>
        <_>
          <internalNodes>
            0 -1 42 -3.8671027868986130e-002</internalNodes>
          <leafValues>
            1.4362764358520508e-001 -8.2811373472213745e-001</leafValues></_>
        <_>
          <internalNodes>
            0 -1 90 3.4537474857643247e-004</internalNodes>
          <leafValues>
            -2.6390290260314941e-001 3.8930988311767578e-001</leafValues></_>
        <_>
          <internalNodes>
            0 -1 126 2.4329144507646561e-002</internalNodes>
          <leafValues>
            -1.6910624504089355e-001 7.1263796091079712e-001</leafValues></_>
        <_>
          <internalNodes>
            0 -1 52 -5.8424124290468171e-005</internalNodes>
          <leafValues>
            -4.9267852306365967e-001 2.3061044514179230e-001</leafValues></_>
        <_>
          <internalNodes>
            0 -1 105 -6.2813557684421539e-002</internalNodes>
          <leafValues>
            4.5112434029579163e-001 -2.6056843996047974e-001</leafValues></_>
        <_>
          <internalNodes>
            0 -1 12 2.7809154242277145e-002</internalNodes>
          <leafValues>
            1.5390510857105255e-001 -7.5986105203628540e-001</leafValues></_>
        <_>
          <internalNodes>
            0 -1 93 -1.6519621014595032e-002</internalNodes>
          <leafValues>
            2.5746458768844604e-001 -3.8555908203125000e-001</leafValues></_>
        <_>
          <internalNodes>
            0 -1 51 -9.1828428208827972e-002</internalNodes>
          <leafValues>
            4.4929298758506775e-001 -2.1523803472518921e-001</leafValues></_>
        <_>
          <internalNodes>
            0 -1 22 -8.1874271854758263e-003</internalNodes>
          <leafValues>
            3.9156508445739746e-001 -2.4763186275959015e-001</leafValues></_></weakClassifiers></_>
    <!-- stage 11 -->
    <_>
      <maxWeakCount>10</maxWeakCount>
      <stageThreshold>-1.5016103982925415e+000</stageThreshold>
      <weakClassifiers>
        <_>
          <internalNodes>
            0 -1 49 -3.7098947167396545e-001</internalNodes>
          <leafValues>
            8.3783781528472900e-001 -7.1453136205673218e-001</leafValues></_>
        <_>
          <internalNodes>
            0 -1 17 -2.9765623807907104e-001</internalNodes>
          <leafValues>
            7.3104274272918701e-001 -2.9403963685035706e-001</leafValues></_>
        <_>
          <internalNodes>
            0 -1 23 1.4762002974748611e-003</internalNodes>
          <leafValues>
            -3.1134670972824097e-001 3.6682775616645813e-001</leafValues></_>
        <_>
          <internalNodes>
            0 -1 31 5.1089312881231308e-002</internalNodes>
          <leafValues>
            -1.1294295638799667e-001 8.9586532115936279e-001</leafValues></_>
        <_>
          <internalNodes>
            0 -1 11 -1.6772371018305421e-003</internalNodes>
          <leafValues>
            -5.1647877693176270e-001 2.1178454160690308e-001</leafValues></_>
        <_>
          <internalNodes>
            0 -1 129 9.8428945057094097e-004</internalNodes>
          <leafValues>
            1.4049121737480164e-001 -8.2611048221588135e-001</leafValues></_>
        <_>
          <internalNodes>
            0 -1 60 -5.4218016564846039e-002</internalNodes>
          <leafValues>
            4.8563691973686218e-001 -2.2878025472164154e-001</leafValues></_>
        <_>
          <internalNodes>
            0 -1 7 -2.9072832316160202e-002</internalNodes>
          <leafValues>
            2.2302572429180145e-001 -4.8926845192909241e-001</leafValues></_>
        <_>
          <internalNodes>
            0 -1 99 6.0080243274569511e-003</internalNodes>
          <leafValues>
            -1.8267247080802917e-001 6.7059248685836792e-001</leafValues></_>
        <_>
          <internalNodes>
            0 -1 120 7.7696070075035095e-003</internalNodes>
          <leafValues>
            -2.3259840905666351e-001 4.7424116730690002e-001</leafValues></_></weakClassifiers></_>
    <!-- stage 12 -->
    <_>
      <maxWeakCount>11</maxWeakCount>
      <stageThreshold>-1.8917129039764404e+000</stageThreshold>
      <weakClassifiers>
        <_>
          <internalNodes>
            0 -1 53 -2.3055194318294525e-001</internalNodes>
          <leafValues>
            7.3584908246994019e-001 -7.3147338628768921e-001</leafValues></_>
        <_>
          <internalNodes>
            0 -1 35 6.0307369567453861e-003</internalNodes>
          <leafValues>
            -5.2057904005050659e-001 2.2585977613925934e-001</leafValues></_>
        <_>
          <internalNodes>
            0 -1 116 -4.7769790398888290e-005</internalNodes>
          <leafValues>
            4.6886387467384338e-001 -3.4613952040672302e-001</leafValues></_>
        <_>
          <internalNodes>
            0 -1 78 -7.2578270919620991e-004</internalNodes>
          <leafValues>
            5.1898252964019775e-001 -2.6895317435264587e-001</leafValues></_>
        <_>
          <internalNodes>
            0 -1 69 -1.5296589117497206e-004</internalNodes>
          <leafValues>
            -5.1653206348419189e-001 2.8872078657150269e-001</leafValues></_>
        <_>
          <internalNodes>
            0 -1 85 2.1964823827147484e-003</internalNodes>
          <leafValues>
            -1.9925512373447418e-001 6.6802120208740234e-001</leafValues></_>
        <_>
          <internalNodes>
            0 -1 73 -2.0124176517128944e-003</internalNodes>
          <leafValues>
            6.1639851331710815e-001 -2.2762539982795715e-001</leafValues></_>
        <_>
          <internalNodes>
            0 -1 59 -3.6881864070892334e-004</internalNodes>
          <leafValues>
            -4.6534815430641174e-001 3.2290834188461304e-001</leafValues></_>
        <_>
          <internalNodes>
            0 -1 113 -9.8634895402938128e-004</internalNodes>
          <leafValues>
            3.7296286225318909e-001 -3.9734500646591187e-001</leafValues></_>
        <_>
          <internalNodes>
            0 -1 74 2.7302189846523106e-004</internalNodes>
          <leafValues>
            -2.9734814167022705e-001 5.1282078027725220e-001</leafValues></_>
        <_>
          <internalNodes>
            0 -1 72 -1.2685979017987847e-003</internalNodes>
          <leafValues>
            3.9918130636215210e-001 -3.5832631587982178e-001</leafValues></_></weakClassifiers></_>
    <!-- stage 13 -->
    <_>
      <maxWeakCount>10</maxWeakCount>
      <stageThreshold>-1.5026721954345703e+000</stageThreshold>
      <weakClassifiers>
        <_>
          <internalNodes>
            0 -1 87 -8.7929807603359222e-002</internalNodes>
          <leafValues>
            1. -7.6211452484130859e-001</leafValues></_>
        <_>
          <internalNodes>
            0 -1 80 -1.6388099640607834e-002</internalNodes>
          <leafValues>
            6.4232075214385986e-001 -5.0885814428329468e-001</leafValues></_>
        <_>
          <internalNodes>
            0 -1 63 -6.5337223932147026e-003</internalNodes>
          <leafValues>
            2.9475757479667664e-001 -6.2587070465087891e-001</leafValues></_>
        <_>
          <internalNodes>
            0 -1 107 -3.8971276953816414e-003</internalNodes>
          <leafValues>
            7.0508283376693726e-001 -2.5524669885635376e-001</leafValues></_>
        <_>
          <internalNodes>
            0 -1 84 -5.7454383932054043e-004</internalNodes>
          <leafValues>
            7.3792231082916260e-001 -2.0165567100048065e-001</leafValues></_>
        <_>
          <internalNodes>
            0 -1 102 8.4963534027338028e-004</internalNodes>
          <leafValues>
            -2.1586908400058746e-001 6.4821708202362061e-001</leafValues></_>
        <_>
          <internalNodes>
            0 -1 34 -7.2649300098419189e-002</internalNodes>
          <leafValues>
            8.7438172101974487e-001 -1.7815646529197693e-001</leafValues></_>
        <_>
          <internalNodes>
            0 -1 65 -1.3864953070878983e-003</internalNodes>
          <leafValues>
            8.2862538099288940e-001 -2.8165525197982788e-001</leafValues></_>
        <_>
          <internalNodes>
            0 -1 30 -4.6606704592704773e-002</internalNodes>
          <leafValues>
            2.4801836907863617e-001 -7.9754501581192017e-001</leafValues></_>
        <_>
          <internalNodes>
            0 -1 88 -6.2170904129743576e-005</internalNodes>
          <leafValues>
            -5.0597846508026123e-001 3.8528978824615479e-001</leafValues></_></weakClassifiers></_>
    <!-- stage 14 -->
    <_>
      <maxWeakCount>7</maxWeakCount>
      <stageThreshold>-1.3404757976531982e+000</stageThreshold>
      <weakClassifiers>
        <_>
          <internalNodes>
            0 -1 94 -1.2671013828366995e-003</internalNodes>
          <leafValues>
            1. -7.8571426868438721e-001</leafValues></_>
        <_>
          <internalNodes>
            0 -1 114 3.5214202944189310e-004</internalNodes>
          <leafValues>
            -6.2206310033798218e-001 6.0160017013549805e-001</leafValues></_>
        <_>
          <internalNodes>
            0 -1 75 -9.0681584551930428e-003</internalNodes>
          <leafValues>
            6.5350526571273804e-001 -4.5335415005683899e-001</leafValues></_>
        <_>
          <internalNodes>
            0 -1 76 -2.7659744955599308e-003</internalNodes>
          <leafValues>
            -5.1164913177490234e-001 6.0693168640136719e-001</leafValues></_>
        <_>
          <internalNodes>
            0 -1 19 -6.5925449132919312e-002</internalNodes>
          <leafValues>
            8.2073688507080078e-001 -3.9079132676124573e-001</leafValues></_>
        <_>
          <internalNodes>
            0 -1 91 2.3620702268090099e-004</internalNodes>
          <leafValues>
            8.5289686918258667e-001 -3.7856134772300720e-001</leafValues></_>
        <_>
          <internalNodes>
            0 -1 110 8.9444802142679691e-004</internalNodes>
          <leafValues>
            -4.2378264665603638e-001 8.7266504764556885e-001</leafValues></_></weakClassifiers></_></stages>
  <features>
    <_>
      <rects>
        <_>
          0 0 6 19 -1.</_>
        <_>
          2 0 2 19 3.</_></rects>
      <tilted>0</tilted></_>
    <_>
      <rects>
        <_>
          0 0 6 20 -1.</_>
        <_>
          2 0 2 20 3.</_></rects>
      <tilted>0</tilted></_>
    <_>
      <rects>
        <_>
          0 0 9 1 -1.</_>
        <_>
          3 0 3 1 3.</_></rects>
      <tilted>0</tilted></_>
    <_>
      <rects>
        <_>
          0 0 20 2 -1.</_>
        <_>
          0 1 20 1 2.</_></rects>
      <tilted>0</tilted></_>
    <_>
      <rects>
        <_>
          0 1 4 19 -1.</_>
        <_>
          2 1 2 19 2.</_></rects>
      <tilted>0</tilted></_>
    <_>
      <rects>
        <_>
          0 1 6 19 -1.</_>
        <_>
          2 1 2 19 3.</_></rects>
      <tilted>0</tilted></_>
    <_>
      <rects>
        <_>
          0 2 3 14 -1.</_>
        <_>
          1 2 1 14 3.</_></rects>
      <tilted>0</tilted></_>
    <_>
      <rects>
        <_>
          0 2 4 18 -1.</_>
        <_>
          2 2 2 18 2.</_></rects>
      <tilted>0</tilted></_>
    <_>
      <rects>
        <_>
          0 3 6 12 -1.</_>
        <_>
          3 3 3 12 2.</_></rects>
      <tilted>0</tilted></_>
    <_>
      <rects>
        <_>
          0 3 20 16 -1.</_>
        <_>
          0 3 10 8 2.</_>
        <_>
          10 11 10 8 2.</_></rects>
      <tilted>0</tilted></_>
    <_>
      <rects>
        <_>
          0 4 1 3 -1.</_>
        <_>
          0 5 1 1 3.</_></rects>
      <tilted>0</tilted></_>
    <_>
      <rects>
        <_>
          0 4 1 6 -1.</_>
        <_>
          0 6 1 2 3.</_></rects>
      <tilted>0</tilted></_>
    <_>
      <rects>
        <_>
          0 4 1 16 -1.</_>
        <_>
          0 12 1 8 2.</_></rects>
      <tilted>0</tilted></_>
    <_>
      <rects>
        <_>
          0 4 8 13 -1.</_>
        <_>
          4 4 4 13 2.</_></rects>
      <tilted>0</tilted></_>
    <_>
      <rects>
        <_>
          0 4 20 14 -1.</_>
        <_>
          5 4 10 14 2.</_></rects>
      <tilted>0</tilted></_>
    <_>
      <rects>
        <_>
          0 5 6 9 -1.</_>
        <_>
          3 5 3 9 2.</_></rects>
      <tilted>0</tilted></_>
    <_>
      <rects>
        <_>
          0 5 6 14 -1.</_>
        <_>
          3 5 3 14 2.</_></rects>
      <tilted>0</tilted></_>
    <_>
      <rects>
        <_>
          0 5 20 7 -1.</_>
        <_>
          5 5 10 7 2.</_></rects>
      <tilted>0</tilted></_>
    <_>
      <rects>
        <_>
          0 5 16 1 -1.</_>
        <_>
          8 5 8 1 2.</_></rects>
      <tilted>0</tilted></_>
    <_>
      <rects>
        <_>
          0 6 15 12 -1.</_>
        <_>
          0 10 15 4 3.</_></rects>
      <tilted>0</tilted></_>
    <_>
      <rects>
        <_>
          0 7 1 3 -1.</_>
        <_>
          0 8 1 1 3.</_></rects>
      <tilted>0</tilted></_>
    <_>
      <rects>
        <_>
          0 8 1 9 -1.</_>
        <_>
          0 11 1 3 3.</_></rects>
      <tilted>0</tilted></_>
    <_>
      <rects>
        <_>
          0 8 2 9 -1.</_>
        <_>
          1 8 1 9 2.</_></rects>
      <tilted>0</tilted></_>
    <_>
      <rects>
        <_>
          0 14 2 6 -1.</_>
        <_>
          0 17 2 3 2.</_></rects>
      <tilted>0</tilted></_>
    <_>
      <rects>
        <_>
          0 16 19 4 -1.</_>
        <_>
          0 18 19 2 2.</_></rects>
      <tilted>0</tilted></_>
    <_>
      <rects>
        <_>
          0 16 20 4 -1.</_>
        <_>
          0 18 20 2 2.</_></rects>
      <tilted>0</tilted></_>
    <_>
      <rects>
        <_>
          0 17 1 2 -1.</_>
        <_>
          0 18 1 1 2.</_></rects>
      <tilted>0</tilted></_>
    <_>
      <rects>
        <_>
          0 17 6 2 -1.</_>
        <_>
          3 17 3 2 2.</_></rects>
      <tilted>0</tilted></_>
    <_>
      <rects>
        <_>
          0 19 4 1 -1.</_>
        <_>
          2 19 2 1 2.</_></rects>
      <tilted>0</tilted></_>
    <_>
      <rects>
        <_>
          1 0 2 2 -1.</_>
        <_>
          2 0 1 2 2.</_></rects>
      <tilted>0</tilted></_>
    <_>
      <rects>
        <_>
          1 0 14 15 -1.</_>
        <_>
          1 5 14 5 3.</_></rects>
      <tilted>0</tilted></_>
    <_>
      <rects>
        <_>
          1 1 10 8 -1.</_>
        <_>
          6 1 5 8 2.</_></rects>
      <tilted>0</tilted></_>
    <_>
      <rects>
        <_>
          1 2 16 16 -1.</_>
        <_>
          1 2 8 8 2.</_>
        <_>
          9 10 8 8 2.</_></rects>
      <tilted>0</tilted></_>
    <_>
      <rects>
        <_>
          1 3 18 15 -1.</_>
        <_>
          7 8 6 5 9.</_></rects>
      <tilted>0</tilted></_>
    <_>
      <rects>
        <_>
          1 4 15 1 -1.</_>
        <_>
          6 9 5 1 3.</_></rects>
      <tilted>1</tilted></_>
    <_>
      <rects>
        <_>
          1 14 2 6 -1.</_>
        <_>
          1 17 2 3 2.</_></rects>
      <tilted>0</tilted></_>
    <_>
      <rects>
        <_>
          1 14 5 6 -1.</_>
        <_>
          1 17 5 3 2.</_></rects>
      <tilted>0</tilted></_>
    <_>
      <rects>
        <_>
          1 16 18 4 -1.</_>
        <_>
          1 18 18 2 2.</_></rects>
      <tilted>0</tilted></_>
    <_>
      <rects>
        <_>
          1 19 3 1 -1.</_>
        <_>
          2 19 1 1 3.</_></rects>
      <tilted>0</tilted></_>
    <_>
      <rects>
        <_>
          1 19 4 1 -1.</_>
        <_>
          3 19 2 1 2.</_></rects>
      <tilted>0</tilted></_>
    <_>
      <rects>
        <_>
          1 19 6 1 -1.</_>
        <_>
          3 19 2 1 3.</_></rects>
      <tilted>0</tilted></_>
    <_>
      <rects>
        <_>
          2 0 14 6 -1.</_>
        <_>
          2 3 14 3 2.</_></rects>
      <tilted>0</tilted></_>
    <_>
      <rects>
        <_>
          2 0 14 15 -1.</_>
        <_>
          2 5 14 5 3.</_></rects>
      <tilted>0</tilted></_>
    <_>
      <rects>
        <_>
          2 0 16 4 -1.</_>
        <_>
          2 2 16 2 2.</_></rects>
      <tilted>0</tilted></_>
    <_>
      <rects>
        <_>
          2 1 16 2 -1.</_>
        <_>
          2 2 16 1 2.</_></rects>
      <tilted>0</tilted></_>
    <_>
      <rects>
        <_>
          2 2 16 16 -1.</_>
        <_>
          2 2 8 8 2.</_>
        <_>
          10 10 8 8 2.</_></rects>
      <tilted>0</tilted></_>
    <_>
      <rects>
        <_>
          2 2 18 6 -1.</_>
        <_>
          11 2 9 6 2.</_></rects>
      <tilted>0</tilted></_>
    <_>
      <rects>
        <_>
          2 2 14 2 -1.</_>
        <_>
          2 3 14 1 2.</_></rects>
      <tilted>0</tilted></_>
    <_>
      <rects>
        <_>
          2 3 16 14 -1.</_>
        <_>
          2 3 8 7 2.</_>
        <_>
          10 10 8 7 2.</_></rects>
      <tilted>0</tilted></_>
    <_>
      <rects>
        <_>
          2 4 16 14 -1.</_>
        <_>
          2 4 8 7 2.</_>
        <_>
          10 11 8 7 2.</_></rects>
      <tilted>0</tilted></_>
    <_>
      <rects>
        <_>
          2 9 1 2 -1.</_>
        <_>
          2 9 1 1 2.</_></rects>
      <tilted>1</tilted></_>
    <_>
      <rects>
        <_>
          2 12 18 3 -1.</_>
        <_>
          8 13 6 1 9.</_></rects>
      <tilted>0</tilted></_>
    <_>
      <rects>
        <_>
          2 18 6 2 -1.</_>
        <_>
          2 19 6 1 2.</_></rects>
      <tilted>0</tilted></_>
    <_>
      <rects>
        <_>
          3 2 12 14 -1.</_>
        <_>
          3 2 6 7 2.</_>
        <_>
          9 9 6 7 2.</_></rects>
      <tilted>0</tilted></_>
    <_>
      <rects>
        <_>
          3 3 2 13 -1.</_>
        <_>
          4 3 1 13 2.</_></rects>
      <tilted>0</tilted></_>
    <_>
      <rects>
        <_>
          3 4 16 14 -1.</_>
        <_>
          3 4 8 7 2.</_>
        <_>
          11 11 8 7 2.</_></rects>
      <tilted>0</tilted></_>
    <_>
      <rects>
        <_>
          3 10 10 10 -1.</_>
        <_>
          3 15 10 5 2.</_></rects>
      <tilted>0</tilted></_>
    <_>
      <rects>
        <_>
          3 18 15 2 -1.</_>
        <_>
          3 19 15 1 2.</_></rects>
      <tilted>0</tilted></_>
    <_>
      <rects>
        <_>
          4 0 10 6 -1.</_>
        <_>
          4 3 10 3 2.</_></rects>
      <tilted>0</tilted></_>
    <_>
      <rects>
        <_>
          4 2 2 2 -1.</_>
        <_>
          5 2 1 2 2.</_></rects>
      <tilted>0</tilted></_>
    <_>
      <rects>
        <_>
          4 2 14 8 -1.</_>
        <_>
          4 2 7 4 2.</_>
        <_>
          11 6 7 4 2.</_></rects>
      <tilted>0</tilted></_>
    <_>
      <rects>
        <_>
          4 4 14 14 -1.</_>
        <_>
          4 4 7 7 2.</_>
        <_>
          11 11 7 7 2.</_></rects>
      <tilted>0</tilted></_>
    <_>
      <rects>
        <_>
          4 12 9 8 -1.</_>
        <_>
          4 16 9 4 2.</_></rects>
      <tilted>0</tilted></_>
    <_>
      <rects>
        <_>
          4 13 16 4 -1.</_>
        <_>
          8 13 8 4 2.</_></rects>
      <tilted>0</tilted></_>
    <_>
      <rects>
        <_>
          5 1 15 18 -1.</_>
        <_>
          10 7 5 6 9.</_></rects>
      <tilted>0</tilted></_>
    <_>
      <rects>
        <_>
          5 3 6 2 -1.</_>
        <_>
          5 3 3 2 2.</_></rects>
      <tilted>1</tilted></_>
    <_>
      <rects>
        <_>
          5 16 5 4 -1.</_>
        <_>
          5 18 5 2 2.</_></rects>
      <tilted>0</tilted></_>
    <_>
      <rects>
        <_>
          5 16 12 4 -1.</_>
        <_>
          5 18 12 2 2.</_></rects>
      <tilted>0</tilted></_>
    <_>
      <rects>
        <_>
          5 17 13 3 -1.</_>
        <_>
          5 18 13 1 3.</_></rects>
      <tilted>0</tilted></_>
    <_>
      <rects>
        <_>
          5 19 3 1 -1.</_>
        <_>
          6 19 1 1 3.</_></rects>
      <tilted>0</tilted></_>
    <_>
      <rects>
        <_>
          6 2 12 12 -1.</_>
        <_>
          6 2 6 6 2.</_>
        <_>
          12 8 6 6 2.</_></rects>
      <tilted>0</tilted></_>
    <_>
      <rects>
        <_>
          6 2 12 17 -1.</_>
        <_>
          12 2 6 17 2.</_></rects>
      <tilted>0</tilted></_>
    <_>
      <rects>
        <_>
          6 5 1 9 -1.</_>
        <_>
          6 8 1 3 3.</_></rects>
      <tilted>0</tilted></_>
    <_>
      <rects>
        <_>
          6 6 3 5 -1.</_>
        <_>
          7 6 1 5 3.</_></rects>
      <tilted>0</tilted></_>
    <_>
      <rects>
        <_>
          6 6 7 3 -1.</_>
        <_>
          6 7 7 1 3.</_></rects>
      <tilted>0</tilted></_>
    <_>
      <rects>
        <_>
          7 2 5 6 -1.</_>
        <_>
          7 4 5 2 3.</_></rects>
      <tilted>0</tilted></_>
    <_>
      <rects>
        <_>
          7 4 4 3 -1.</_>
        <_>
          9 4 2 3 2.</_></rects>
      <tilted>0</tilted></_>
    <_>
      <rects>
        <_>
          7 12 6 8 -1.</_>
        <_>
          7 16 6 4 2.</_></rects>
      <tilted>0</tilted></_>
    <_>
      <rects>
        <_>
          7 14 4 2 -1.</_>
        <_>
          8 14 2 2 2.</_></rects>
      <tilted>0</tilted></_>
    <_>
      <rects>
        <_>
          7 19 2 1 -1.</_>
        <_>
          8 19 1 1 2.</_></rects>
      <tilted>0</tilted></_>
    <_>
      <rects>
        <_>
          8 1 3 8 -1.</_>
        <_>
          8 3 3 4 2.</_></rects>
      <tilted>0</tilted></_>
    <_>
      <rects>
        <_>
          8 9 4 3 -1.</_>
        <_>
          9 9 2 3 2.</_></rects>
      <tilted>0</tilted></_>
    <_>
      <rects>
        <_>
          8 10 2 4 -1.</_>
        <_>
          8 10 1 2 2.</_>
        <_>
          9 12 1 2 2.</_></rects>
      <tilted>0</tilted></_>
    <_>
      <rects>
        <_>
          8 10 6 2 -1.</_>
        <_>
          10 10 2 2 3.</_></rects>
      <tilted>0</tilted></_>
    <_>
      <rects>
        <_>
          8 15 2 1 -1.</_>
        <_>
          9 15 1 1 2.</_></rects>
      <tilted>0</tilted></_>
    <_>
      <rects>
        <_>
          9 0 3 11 -1.</_>
        <_>
          10 0 1 11 3.</_></rects>
      <tilted>0</tilted></_>
    <_>
      <rects>
        <_>
          9 0 2 12 -1.</_>
        <_>
          9 4 2 4 3.</_></rects>
      <tilted>0</tilted></_>
    <_>
      <rects>
        <_>
          9 0 2 20 -1.</_>
        <_>
          9 5 2 10 2.</_></rects>
      <tilted>0</tilted></_>
    <_>
      <rects>
        <_>
          9 1 2 2 -1.</_>
        <_>
          9 1 1 1 2.</_>
        <_>
          10 2 1 1 2.</_></rects>
      <tilted>0</tilted></_>
    <_>
      <rects>
        <_>
          10 0 7 20 -1.</_>
        <_>
          10 5 7 10 2.</_></rects>
      <tilted>0</tilted></_>
    <_>
      <rects>
        <_>
          10 5 4 1 -1.</_>
        <_>
          11 6 2 1 2.</_></rects>
      <tilted>1</tilted></_>
    <_>
      <rects>
        <_>
          10 8 3 12 -1.</_>
        <_>
          11 8 1 12 3.</_></rects>
      <tilted>0</tilted></_>
    <_>
      <rects>
        <_>
          11 5 3 6 -1.</_>
        <_>
          12 6 1 6 3.</_></rects>
      <tilted>1</tilted></_>
    <_>
      <rects>
        <_>
          11 9 3 8 -1.</_>
        <_>
          9 11 3 4 2.</_></rects>
      <tilted>1</tilted></_>
    <_>
      <rects>
        <_>
          11 12 4 3 -1.</_>
        <_>
          11 13 4 1 3.</_></rects>
      <tilted>0</tilted></_>
    <_>
      <rects>
        <_>
          12 0 3 2 -1.</_>
        <_>
          13 0 1 2 3.</_></rects>
      <tilted>0</tilted></_>
    <_>
      <rects>
        <_>
          12 0 8 12 -1.</_>
        <_>
          9 3 8 6 2.</_></rects>
      <tilted>1</tilted></_>
    <_>
      <rects>
        <_>
          12 12 3 5 -1.</_>
        <_>
          13 13 1 5 3.</_></rects>
      <tilted>1</tilted></_>
    <_>
      <rects>
        <_>
          13 0 7 12 -1.</_>
        <_>
          10 3 7 6 2.</_></rects>
      <tilted>1</tilted></_>
    <_>
      <rects>
        <_>
          13 5 2 12 -1.</_>
        <_>
          13 5 1 6 2.</_>
        <_>
          14 11 1 6 2.</_></rects>
      <tilted>0</tilted></_>
    <_>
      <rects>
        <_>
          14 2 5 4 -1.</_>
        <_>
          14 4 5 2 2.</_></rects>
      <tilted>0</tilted></_>
    <_>
      <rects>
        <_>
          14 6 4 7 -1.</_>
        <_>
          16 6 2 7 2.</_></rects>
      <tilted>0</tilted></_>
    <_>
      <rects>
        <_>
          14 11 2 4 -1.</_>
        <_>
          14 11 1 2 2.</_>
        <_>
          15 13 1 2 2.</_></rects>
      <tilted>0</tilted></_>
    <_>
      <rects>
        <_>
          14 13 6 1 -1.</_>
        <_>
          16 15 2 1 3.</_></rects>
      <tilted>1</tilted></_>
    <_>
      <rects>
        <_>
          14 19 6 1 -1.</_>
        <_>
          16 19 2 1 3.</_></rects>
      <tilted>0</tilted></_>
    <_>
      <rects>
        <_>
          15 1 2 18 -1.</_>
        <_>
          15 10 2 9 2.</_></rects>
      <tilted>0</tilted></_>
    <_>
      <rects>
        <_>
          15 4 4 10 -1.</_>
        <_>
          17 4 2 10 2.</_></rects>
      <tilted>0</tilted></_>
    <_>
      <rects>
        <_>
          15 11 3 6 -1.</_>
        <_>
          15 14 3 3 2.</_></rects>
      <tilted>0</tilted></_>
    <_>
      <rects>
        <_>
          16 0 4 4 -1.</_>
        <_>
          16 0 2 2 2.</_>
        <_>
          18 2 2 2 2.</_></rects>
      <tilted>0</tilted></_>
    <_>
      <rects>
        <_>
          16 1 4 19 -1.</_>
        <_>
          18 1 2 19 2.</_></rects>
      <tilted>0</tilted></_>
    <_>
      <rects>
        <_>
          16 9 4 2 -1.</_>
        <_>
          17 10 2 2 2.</_></rects>
      <tilted>1</tilted></_>
    <_>
      <rects>
        <_>
          16 16 1 4 -1.</_>
        <_>
          16 17 1 2 2.</_></rects>
      <tilted>0</tilted></_>
    <_>
      <rects>
        <_>
          17 3 3 12 -1.</_>
        <_>
          18 3 1 12 3.</_></rects>
      <tilted>0</tilted></_>
    <_>
      <rects>
        <_>
          17 6 2 8 -1.</_>
        <_>
          17 10 2 4 2.</_></rects>
      <tilted>0</tilted></_>
    <_>
      <rects>
        <_>
          17 7 1 6 -1.</_>
        <_>
          17 9 1 2 3.</_></rects>
      <tilted>0</tilted></_>
    <_>
      <rects>
        <_>
          17 12 1 4 -1.</_>
        <_>
          17 14 1 2 2.</_></rects>
      <tilted>0</tilted></_>
    <_>
      <rects>
        <_>
          17 15 1 4 -1.</_>
        <_>
          17 16 1 2 2.</_></rects>
      <tilted>0</tilted></_>
    <_>
      <rects>
        <_>
          17 15 3 1 -1.</_>
        <_>
          18 16 1 1 3.</_></rects>
      <tilted>1</tilted></_>
    <_>
      <rects>
        <_>
          17 19 3 1 -1.</_>
        <_>
          18 19 1 1 3.</_></rects>
      <tilted>0</tilted></_>
    <_>
      <rects>
        <_>
          18 0 1 4 -1.</_>
        <_>
          18 2 1 2 2.</_></rects>
      <tilted>0</tilted></_>
    <_>
      <rects>
        <_>
          18 0 2 18 -1.</_>
        <_>
          18 0 1 9 2.</_>
        <_>
          19 9 1 9 2.</_></rects>
      <tilted>0</tilted></_>
    <_>
      <rects>
        <_>
          18 0 2 18 -1.</_>
        <_>
          19 0 1 18 2.</_></rects>
      <tilted>0</tilted></_>
    <_>
      <rects>
        <_>
          18 1 2 18 -1.</_>
        <_>
          19 1 1 18 2.</_></rects>
      <tilted>0</tilted></_>
    <_>
      <rects>
        <_>
          18 2 2 17 -1.</_>
        <_>
          19 2 1 17 2.</_></rects>
      <tilted>0</tilted></_>
    <_>
      <rects>
        <_>
          18 2 2 18 -1.</_>
        <_>
          19 2 1 18 2.</_></rects>
      <tilted>0</tilted></_>
    <_>
      <rects>
        <_>
          18 3 2 15 -1.</_>
        <_>
          19 3 1 15 2.</_></rects>
      <tilted>0</tilted></_>
    <_>
      <rects>
        <_>
          18 8 2 12 -1.</_>
        <_>
          19 8 1 12 2.</_></rects>
      <tilted>0</tilted></_>
    <_>
      <rects>
        <_>
          18 18 2 2 -1.</_>
        <_>
          18 18 1 1 2.</_>
        <_>
          19 19 1 1 2.</_></rects>
      <tilted>0</tilted></_>
    <_>
      <rects>
        <_>
          19 0 1 2 -1.</_>
        <_>
          19 1 1 1 2.</_></rects>
      <tilted>0</tilted></_>
    <_>
      <rects>
        <_>
          19 12 1 3 -1.</_>
        <_>
          19 13 1 1 3.</_></rects>
      <tilted>0</tilted></_></features></cascade>
</opencv_storage>
